34 64
1 -0.093515582 -0.11799932 -0.019226614 -0.38358206 0.21965092 0.30150816 -0.15938015 0.15936704 0.05942313 -0.14009303 0.078142889 -0.046768021 -0.18970269 -0.16394758 -0.32806915 0.0015723712 0.17020591 0.083558373 0.020073952 -0.00073547073 -0.071482308 0.17338525 0.12586062 -0.029801166 0.0040194411 0.034101974 0.24764371 0.029742366 0.12737559 0.057759702 0.017950673 0.094998784 -0.085784741 -0.098629594 0.054568492 0.059193116 -0.290737 -0.077961877 -0.041378189 0.20657791 0.21546192 -0.086401932 -0.10424711 -0.076341569 -0.13384397 -0.16332904 0.49270329 -0.11354361 0.062545568 -0.25751692 0.1256398 0.054184042 -0.0022587923 -0.070051514 0.048955739 0.27967951 -0.070285514 0.16559888 -0.35437098 -0.031365506 0.017812639 -0.071919397 0.16609654 -0.22155251
34 -0.016277336 -0.36820605 0.21090905 -0.28678623 0.24806499 0.14271072 -0.23188637 -0.033254173 0.14711435 0.048798598 -0.013256161 0.1349649 0.011028728 -0.34189376 -0.36213446 -0.051139951 -0.0013886563 0.14646587 0.1685046 0.046949513 0.30901018 0.11383966 -0.013839231 -0.018780872 -0.12993139 -0.050497569 0.23256809 0.34251812 0.10976379 -0.21017849 -0.084291287 -0.1420449 -0.10462812 -0.031465221 0.033033308 -0.29256704 -0.033858933 0.0040981304 -0.38687336 0.35876784 -0.02179883 -0.33505082 -0.14302154 0.10455795 0.014619502 0.076543227 -0.070360616 -0.13347067 0.098096587 -0.11289391 -0.25511998 0.074308999 0.038229398 0.051960662 -0.10555181 0.02957098 -0.057099916 0.25104737 0.088828638 -0.17272481 -0.038122252 0.23188193 -0.0012950519 -0.0007137194
33 0.013873633 -0.38761842 0.18968192 -0.29326236 0.27260736 0.13866206 -0.24301957 -0.053716071 0.12479641 0.092140161 0.011796728 0.20734036 0.048703142 -0.28988233 -0.34458414 -0.043167159 -0.041510861 0.14060582 0.13237758 0.081858441 0.27164599 0.14118363 0.057521448 -0.055848483 -0.14588775 -0.019448476 0.21408841 0.36341542 0.15918596 -0.22349587 -0.077849515 -0.18221635 -0.12293091 -0.028716374 0.036813848 -0.32291561 -0.049590301 0.0092162434 -0.41520694 0.35504034 -0.038965948 -0.3527244 -0.16734837 0.12730035 -0.017315395 0.10762567 -0.11991865 -0.12691285 0.10388511 -0.079147749 -0.19726521 0.045364443 0.069847994 0.034319166 -0.086203836 0.02349541 -0.044725109 0.15472575 0.10666119 -0.15437412 -0.11130639 0.18062849 -0.047678683 0.039086413
3 -0.0398991 -0.21126483 0.15125251 -0.38084236 0.17815872 0.24603508 -0.30621731 0.065297157 0.071719833 -0.011632618 0.056337569 0.063400991 -0.033112422 -0.24213436 -0.36054403 -0.13121457 0.14815402 0.14720666 0.02219492 0.13213798 0.27138126 0.079837531 0.071445592 0.029070744 -0.040719487 0.032867357 0.13571408 0.17866543 0.064721979 0.0091045266 -0.11403669 -0.013238157 -0.099008396 -0.039270312 -0.01866837 -0.043170504 -0.1351569 -0.047611654 -0.30310509 0.26762623 0.089874141 -0.20962191 -0.066484265 0.13857418 -0.031726006 -0.12228162 0.11929786 -0.072987743 0.10657903 -0.28426495 -0.048093081 0.055646755 -0.053290427 0.067755364 -0.10256548 0.22329302 -0.035824437 0.22483382 -0.15991575 -0.097820438 0.032007579 0.14072561 0.10288578 -0.16723639
2 -0.056638923 -0.10476743 0.086285159 -0.48698658 0.14963134 0.32017508 -0.34401715 0.14053699 0.041686408 -0.058018282 0.10918779 0.038584333 -0.03777273 -0.21318001 -0.35202694 -0.15131992 0.21872814 0.15132935 -0.065086409 0.1730859 0.19887543 0.076732412 0.15685123 0.039851621 -2.636504e-05 0.079459026 0.13828187 0.10534311 0.052494235 0.15425599 -0.092680961 0.08080031 -0.096747264 -0.064023852 -0.034596682 0.1043413 -0.23692013 -0.094357193 -0.22631174 0.24960621 0.17715664 -0.1415291 -0.050621968 0.12848471 -0.077852271 -0.24442174 0.30380541 -0.051419951 0.097085878 -0.37098286 0.12037584 0.031302158 -0.11044645 0.067293175 -0.084498309 0.3794111 -0.0089631751 0.19645691 -0.33576933 -0.013934375 0.049454756 0.063959546 0.19822997 -0.2531997
4 -0.058211043 -0.10510254 0.10150429 -0.48902816 0.15296479 0.35279292 -0.36214185 0.14559944 0.045105293 -0.058190119 0.099365458 0.0007061619 -0.070420094 -0.20906419 -0.36495975 -0.16069473 0.2654953 0.14536029 -0.066349544 0.18022807 0.2071681 0.066247471 0.14024803 0.068983875 0.017413009 0.1021862 0.10668585 0.078277484 0.034390107 0.1725495 -0.11761548 0.10726272 -0.094528623 -0.066020355 -0.036513135 0.14154103 -0.22559896 -0.10538325 -0.23814711 0.23172447 0.18554288 -0.13042192 -0.022519886 0.15194328 -0.079558179 -0.29267782 0.32720926 -0.056214526 0.10122717 -0.40885592 0.10994853 0.034604851 -0.12850919 0.073105499 -0.085281357 0.38505647 -0.0011262626 0.22494967 -0.35845092 -0.024503665 0.079172447 0.076658003 0.20413658 -0.29024014
32 -0.10462424 -0.25977057 0.071006745 -0.17037332 0.21123756 0.16716513 -0.073821388 -0.022432193 0.20379585 0.00332249 -0.063204974 -0.17944406 -0.17194659 -0.32157072 -0.28739446 0.012321815 -0.11821638 0.04656503 0.32971877 -0.14754166 0.16249193 0.11680618 -0.19672309 0.027495736 -0.057532012 -0.16409084 0.38161188 0.19198969 -0.013992721 -0.25728357 0.0065627987 -0.019341459 -0.13604286 -0.22502589 -0.1040368 -0.24874842 -0.070880234 -0.023725741 -0.064166546 0.27208132 0.0024939936 -0.14595063 -0.29038176 -0.099140033 0.09245728 0.12824295 0.18701901 -0.2337452 -0.043473125 -0.13500232 -0.40057284 0.041426305 -0.069993272 0.077683233 -0.083357729 -0.022380264 -0.08452826 0.42573667 -0.011615044 -0.20417094 0.16983719 0.10351516 0.1086728 0.025124049
14 -0.04104805 -0.18811564 0.075328618 -0.36307439 0.21989796 0.27408534 -0.25458151 0.10327539 0.056557517 -0.036585931 0.084403254 0.043053906 -0.081531696 -0.2082956 -0.35111704 -0.084710337 0.13727422 0.10989333 0.013369115 0.080658354 0.14041051 0.12838449 0.10126425 -0.0062219854 -0.025322802 0.041138418 0.18255587 0.13183922 0.094565891 0.02858242 -0.074846007 0.0043350095 -0.098851427 -0.071082927 0.0084181242 -0.026140647 -0.19411609 -0.050556455 -0.21402858 0.24813153 0.12992571 -0.18931794 -0.094536893 0.068334714 -0.077315196 -0.12456616 0.26395068 -0.09470962 0.093756117 -0.2360023 0.020799382 0.04061057 -0.038424872 0.0083702961 -0.042725008 0.25132006 -0.04900888 0.17316459 -0.22271249 -0.06409844 0.015980816 0.032926779 0.11790192 -0.17697798
24 -0.062396649 -0.34895793 0.1708793 -0.19868043 0.21949415 0.14428443 -0.16102278 -0.079863325 0.19725578 0.093805432 -0.069032475 -0.046096001 -0.041673046 -0.38992521 -0.30631334 -0.049417704 -0.14013217 0.1065283 0.32103857 -0.04584305 0.33832303 0.10240343 -0.19424181 0.048692048 -0.12244331 -0.15956692 0.33701506 0.324027 0.0042522158 -0.28745624 -0.045749031 -0.10205799 -0.13704675 -0.17154755 -0.12270807 -0.33128253 0.012822465 -0.0099682771 -0.2543686 0.33007106 -0.077276379 -0.2587668 -0.27908054 0.035650346 0.11563139 0.15303671 -0.052119013 -0.20853338 -0.018050846 -0.10326588 -0.46729034 0.038251005 -0.083458453 0.13161206 -0.13542631 -0.04837003 -0.067302555 0.41433659 0.1168102 -0.23166439 0.12479705 0.23597215 0.036531907 0.086281069
9 -0.020379603 -0.29044372 0.12448382 -0.29867613 0.24439044 0.17071189 -0.20174928 0.020990444 0.12133668 0.0039202864 0.017165164 0.093915358 -0.020216066 -0.28056258 -0.33908409 -0.024513824 0.020246712 0.12623961 0.12676188 0.03204257 0.21303777 0.13447237 0.03909212 -0.032713644 -0.098883599 -0.037590101 0.2338358 0.25089884 0.1049742 -0.14271542 -0.05148159 -0.08542379 -0.095424719 -0.059900589 0.027875643 -0.21266426 -0.08880955 -0.011681658 -0.29008859 0.31153759 0.039441828 -0.26684132 -0.13949475 0.052188974 -0.019887697 0.025693214 0.052756794 -0.13539648 0.079187438 -0.13248855 -0.13827512 0.064374752 0.025281418 0.015615673 -0.068614721 0.087897472 -0.071009934 0.20032533 -0.027329361 -0.12785967 -0.036769215 0.14995427 0.031421848 -0.027265478
8 -0.0458408 -0.15211162 0.1270327 -0.45933419 0.18724748 0.32719582 -0.34434327 0.13608733 0.056233693 -0.045779012 0.099850811 0.042220611 -0.067370214 -0.21774423 -0.38345572 -0.14630702 0.24160564 0.15642555 -0.058992527 0.16313931 0.22277763 0.083597362 0.13139495 0.042057768 -0.0042118225 0.093339562 0.11816175 0.12742744 0.066836588 0.13495085 -0.12002394 0.057633247 -0.097209401 -0.047890708 -0.002282015 0.082614206 -0.20581163 -0.08078485 -0.27349144 0.24843776 0.14957227 -0.19420137 -0.016963396 0.14792529 -0.084049597 -0.24432635 0.27274734 -0.069434658 0.13056409 -0.34789816 0.084006846 0.053083748 -0.086157694 0.055010613 -0.074485548 0.35049635 -0.027380101 0.19127899 -0.2894538 -0.046449997 0.03785909 0.075640522 0.16572388 -0.26258057
28 -0.094488554 -0.25340742 0.12792844 -0.2302548 0.16823122 0.1967808 -0.14843108 -0.03215377 0.19402878 0.023146681 -0.047488738 -0.12992361 -0.10965727 -0.34375608 -0.28122413 -0.040153962 -0.062082194 0.073310457 0.275278 -0.059641551 0.25735959 0.082483113 -0.20569868 0.072423249 -0.059555732 -0.12419625 0.32677811 0.22518161 -0.056812428 -0.19248924 -0.045287721 -0.0046961922 -0.12933806 -0.19002369 -0.13330555 -0.1951037 -0.0549399 -0.056815185 -0.12869984 0.2858251 -0.033748161 -0.15898885 -0.21995911 -0.016299501 0.098861448 0.065696336 0.10987249 -0.20738545 -0.038103413 -0.17775083 -0.40705466 0.048218459 -0.11988228 0.13796961 -0.10697857 0.017697487 -0.056928333 0.456276 0.0047567738 -0.19715159 0.17553896 0.16987519 0.12754746 -0.0018339574
6 -0.15693666 -0.16608956 -0.21026868 -0.43249246 0.40093449 0.37105411 -0.035312209 0.20325895 0.090388976 -0.26822338 0.1137884 -0.07179147 -0.37069288 -0.085287556 -0.38589838 0.16607656 0.096817322 -0.0085543534 0.08578679 -0.13869393 -0.46281093 0.37008315 0.26631388 -0.17896807 0.0035991827 0.025796998 0.44115442 -0.033695661 0.3191964 -0.053058214 0.20056874 0.11195213 -0.14286712 -0.18359514 0.184525 -0.012994954 -0.53682107 -0.084236421 0.13567445 0.25453448 0.35540557 -0.025187386 -0.274986 -0.3628836 -0.26230669 -0.054614194 0.86873168 -0.21027429 0.066570878 -0.18810983 0.25897405 0.072231382 0.16880465 -0.29345298 0.21583493 0.27836919 -0.16433804 0.076850481 -0.51284033 0.0065205139 -0.10619569 -0.36854506 0.15229324 -0.23180692
7 -0.14821662 -0.23882714 -0.19213793 -0.33618915 0.41927063 0.3166241 0.015981557 0.165783 0.093351431 -0.24319433 0.084865592 -0.06106459 -0.3576844 -0.11729278 -0.38027921 0.17210817 0.023930943 -0.013989625 0.15818979 -0.19037955 -0.42724168 0.37183392 0.21718591 -0.20771746 -0.043768868 -0.0089735687 0.45060271 0.012321797 0.33838519 -0.13601953 0.19660351 0.034566712 -0.16492124 -0.18830897 0.20418954 -0.12558895 -0.48091614 -0.043524653 0.10693429 0.25852403 0.32029372 -0.085845746 -0.31782568 -0.38383791 -0.24415816 0.040211447 0.76781744 -0.22879282 0.061607808 -0.11526183 0.17650825 0.062553369 0.1945688 -0.30739018 0.18713488 0.16566631 -0.21024147 0.067548119 -0.39921731 -0.042502925 -0.1150368 -0.33206236 0.10102143 -0.18114898
31 -0.0210422 -0.27063128 0.16884051 -0.32022244 0.20391671 0.18361156 -0.25244871 0.012836941 0.095207572 0.041637439 0.012449529 0.11278468 0.017840263 -0.28534898 -0.34737837 -0.076273061 0.039850682 0.13251603 0.090546191 0.094829075 0.29052126 0.089124024 0.0234892 -0.004434783 -0.087859072 -0.01869219 0.20090927 0.2693662 0.082276054 -0.10683926 -0.097366385 -0.087751701 -0.10467782 -0.036023933 0.0075396243 -0.19313318 -0.087180406 -0.02385292 -0.3312124 0.30752116 0.016275641 -0.26070374 -0.12038925 0.12477715 -0.012172303 0.0050286371 0.0078723952 -0.11131695 0.096413858 -0.17579159 -0.14791209 0.04677036 -0.010463309 0.061907403 -0.108998 0.11542738 -0.043004286 0.21914172 -0.030310217 -0.1248966 -0.01232554 0.17719032 0.047022711 -0.055555992
30 -0.028429063 -0.39807251 0.2214056 -0.24072273 0.23335725 0.13134077 -0.1982836 -0.0838162 0.17915574 0.10199939 -0.058349185 0.094369762 0.0041313684 -0.41019571 -0.33819866 -0.04585848 -0.10454322 0.12009428 0.28044865 0.0093853446 0.3443478 0.10413711 -0.13119024 0.016978078 -0.13785136 -0.12510176 0.3249591 0.39096135 0.043934196 -0.30947241 -0.05968998 -0.15129372 -0.12632367 -0.086332388 -0.055098299 -0.37535384 0.018092185 -0.0043466762 -0.35636604 0.38100147 -0.10183626 -0.32671198 -0.23625435 0.093374938 0.065785706 0.15629639 -0.13759039 -0.17722048 0.029841911 -0.074556664 -0.43391213 0.074827194 -0.023874065 0.095060222 -0.11220091 -0.0344171 -0.041540183 0.37110525 0.17665698 -0.23740883 0.029301321 0.28942817 0.0045954618 0.09425091
25 -0.12976147 -0.26027939 0.10379 -0.14547263 0.1580091 0.1699461 -0.077480055 -0.069783665 0.25430512 0.032279085 -0.12558314 -0.27680585 -0.17185988 -0.39032456 -0.28063425 -0.0053268466 -0.17328364 0.041476741 0.4189676 -0.17159055 0.25133848 0.083189078 -0.34233558 0.10070143 -0.052039757 -0.21992348 0.43107972 0.21900061 -0.10453784 -0.29336938 -5.3814001e-05 0.0062051779 -0.13367301 -0.27546093 -0.20471437 -0.27550009 -0.012849705 -0.050303914 -0.031997968 0.2855002 -0.049837984 -0.13335772 -0.32080194 -0.088044673 0.17213362 0.14831987 0.14418662 -0.26579648 -0.10775766 -0.15830283 -0.57599485 0.051426332 -0.17205404 0.14697535 -0.1318436 -0.061711822 -0.063571744 0.57324135 0.040117566 -0.25200054 0.28258264 0.18069519 0.15025109 0.079248421
29 -0.043556981 -0.25395474 0.12010178 -0.26875645 0.20524994 0.20628738 -0.1998149 0.012179424 0.12648843 0.028695518 -0.012888262 -0.0067938748 -0.055065852 -0.29297009 -0.32731324 -0.071279727 0.0074588661 0.10953939 0.16193829 0.027723618 0.24365363 0.10025532 -0.038242523 0.032750882 -0.070807464 -0.049385574 0.22631903 0.20758855 0.038292076 -0.11846029 -0.059637967 -0.045128562 -0.11153024 -0.12199551 -0.062210288 -0.16166466 -0.072353899 -0.044966985 -0.23939845 0.27561924 0.036654051 -0.21579412 -0.16134188 0.079063945 0.025826937 0.0091828732 0.096691191 -0.13388601 0.041106928 -0.18998092 -0.22632118 0.056039736 -0.065928169 0.069832429 -0.085359469 0.086940631 -0.036933381 0.28480595 -0.049738977 -0.14090101 0.081719168 0.15093343 0.07519494 -0.057506993
5 -0.12465245 -0.18360473 -0.16357565 -0.4055621 0.38712019 0.34466124 -0.076317921 0.21759583 0.056476206 -0.22054221 0.12476116 -0.037529629 -0.3262454 -0.090325594 -0.38333282 0.1125155 0.13685642 0.036167189 0.056971863 -0.095351547 -0.36597639 0.33315903 0.2542769 -0.16643913 -0.0079181595 0.042511147 0.36033142 -0.012837914 0.30890611 -0.023808375 0.13339925 0.080284625 -0.13082634 -0.14529577 0.17242447 -0.010401289 -0.47017702 -0.064125344 0.050328739 0.24107634 0.3251344 -0.083154738 -0.23224537 -0.28115034 -0.25479409 -0.081202291 0.76407486 -0.17689759 0.091635235 -0.19311267 0.26590747 0.062112894 0.14377786 -0.26319903 0.17141122 0.28491715 -0.16390161 0.043965586 -0.47466817 -0.010781534 -0.1065041 -0.30203149 0.12742978 -0.2438838
11 -0.1203443 -0.22262906 -0.17965339 -0.40391204 0.41671395 0.345126 -0.068821311 0.2119821 0.037927873 -0.22095436 0.15184793 0.019433185 -0.31322154 -0.078550652 -0.40262896 0.10889975 0.11359902 0.026065003 0.045136381 -0.10401465 -0.39702913 0.36886904 0.30787972 -0.20543532 -0.025217513 0.060793273 0.37568483 0.0022082429 0.36812931 -0.056046218 0.14002486 0.020466335 -0.16332898 -0.13415444 0.22628435 -0.049904808 -0.49348101 -0.052151751 0.031333197 0.23654746 0.35231444 -0.10687199 -0.24647006 -0.3009204 -0.29692236 -0.047341328 0.75321859 -0.17740268 0.11296699 -0.15162617 0.30893534 0.052445956 0.18901592 -0.30195546 0.18731757 0.25944278 -0.18778816 -0.031007975 -0.4672327 -0.0057669431 -0.16047797 -0.34295332 0.088900328 -0.2403231
26 -0.12565088 -0.29793495 0.14181606 -0.1524336 0.18297851 0.17530629 -0.08160422 -0.098047771 0.28292912 0.050904874 -0.12045451 -0.29182294 -0.17997006 -0.42914331 -0.287256 -0.025105229 -0.17457283 0.051225793 0.44265351 -0.19205587 0.29394919 0.072299458 -0.37265545 0.10268991 -0.059243895 -0.23395489 0.45452684 0.23721585 -0.13120185 -0.32537317 -0.01639488 -0.0026539108 -0.14441618 -0.29539359 -0.22912082 -0.29294461 0.0063746762 -0.04826919 -0.045595571 0.2914629 -0.08486852 -0.14107005 -0.3241218 -0.084208727 0.20131892 0.17942964 0.11766834 -0.29589769 -0.12012413 -0.15951225 -0.65594059 0.049398445 -0.18574168 0.19082308 -0.1377643 -0.080467418 -0.072360329 0.63145411 0.071824513 -0.27546632 0.30646309 0.20826219 0.14176282 0.088488325
20 -0.047542386 -0.18889503 0.072791308 -0.38168508 0.1988322 0.27472058 -0.23291522 0.098007455 0.073802829 -0.041760284 0.060172886 0.029762516 -0.08454743 -0.20663713 -0.3413285 -0.070090473 0.14018491 0.10304381 0.019731188 0.0692022 0.10791612 0.11600197 0.095564827 -0.00088576134 -0.026895741 0.036758542 0.19697848 0.14423893 0.097413599 0.025016977 -0.047659442 0.016465183 -0.10767413 -0.063265279 0.011320139 -0.02267471 -0.20563266 -0.065724723 -0.20654014 0.25449419 0.12378907 -0.17816955 -0.084664404 0.047825314 -0.085102357 -0.11590885 0.26960444 -0.095283993 0.08661098 -0.24088755 0.012429486 0.057855606 -0.031005409 0.008490351 -0.03764914 0.24560782 -0.032123365 0.18927063 -0.2232355 -0.054526791 0.010598718 0.036947198 0.12420741 -0.17617871
13 -0.058120038 -0.1412659 0.089917883 -0.43898591 0.18403403 0.33250338 -0.29985973 0.151214 0.055542789 -0.067090966 0.099597543 -0.012295343 -0.11312389 -0.20508002 -0.36275974 -0.1166134 0.22270498 0.1376462 -0.028269302 0.10059647 0.13924848 0.10543589 0.098074652 0.041380718 0.012969602 0.071194991 0.1791424 0.10410081 0.05552949 0.11050222 -0.085090227 0.069092155 -0.10185435 -0.072225645 -0.026745249 0.088258378 -0.2302141 -0.084480785 -0.19528753 0.24114208 0.1575402 -0.15568589 -0.059698243 0.08744783 -0.092031643 -0.22653469 0.35457689 -0.092473492 0.096907921 -0.33047342 0.064023949 0.035940666 -0.094557002 0.05170523 -0.049238462 0.33544478 -0.01862997 0.21705444 -0.31476766 -0.040661298 0.064641029 0.036400091 0.18205565 -0.25019336
18 -0.076136693 -0.14053413 0.024182217 -0.45464191 0.21629366 0.34434527 -0.25493988 0.15928601 0.059768651 -0.092816442 0.10262734 -0.016812211 -0.13245443 -0.17307015 -0.36644146 -0.083146207 0.19303642 0.099598408 -0.026057335 0.068532318 0.056391437 0.14397812 0.14820206 -0.0045350767 0.0048180772 0.071704321 0.20792666 0.072030917 0.10130089 0.093355678 -0.038725358 0.072469749 -0.12363914 -0.1000221 0.020944728 0.077534601 -0.28908771 -0.094269872 -0.14661092 0.23707262 0.20691167 -0.12807746 -0.092385605 0.017515982 -0.12324177 -0.19948421 0.4238058 -0.11185158 0.098324262 -0.30809456 0.11842611 0.039238721 -0.055283595 -0.0069988822 -0.021044258 0.33455518 -0.057356488 0.17283431 -0.36178491 -0.018581999 0.030205609 -0.050115183 0.17618141 -0.24547075
22 -0.076187864 -0.11919965 0.029697577 -0.43609947 0.18337017 0.32654032 -0.23203254 0.14368892 0.076321967 -0.093280688 0.082828701 -0.022133518 -0.13514657 -0.18012439 -0.34848347 -0.057493474 0.17964222 0.089638554 -0.011773252 0.065627836 0.043946262 0.12573071 0.12534766 0.010630341 0.011550443 0.053961184 0.21712698 0.080240682 0.083243787 0.084286436 -0.031424701 0.087128446 -0.10580133 -0.089116499 0.009683501 0.075171255 -0.27749151 -0.09940435 -0.12271777 0.23638619 0.17756675 -0.10353538 -0.07869193 -0.0021305638 -0.11250542 -0.1744719 0.40930402 -0.1075989 0.080522679 -0.30298683 0.087184705 0.054614563 -0.055058289 -0.005026516 -0.007962741 0.32031506 -0.035077896 0.20041454 -0.33658233 -0.020778775 0.025562262 -0.030122876 0.18456145 -0.22600412
17 -0.1275572 -0.27751738 -0.26107511 -0.39052835 0.50077975 0.33833584 0.016255632 0.21924374 0.05839077 -0.27821183 0.14784297 0.048999421 -0.38039756 -0.042683691 -0.41861537 0.22571902 0.036436766 -0.010791535 0.10438658 -0.17679316 -0.57599008 0.4659895 0.38020515 -0.29547581 -0.071362615 0.025461618 0.46680331 0.0014674048 0.47704095 -0.14439611 0.24770451 0.013900759 -0.17459826 -0.16849521 0.30078429 -0.1375379 -0.58776844 -0.039884441 0.079851367 0.28879362 0.38940388 -0.10297977 -0.33592364 -0.44233704 -0.33610758 0.060549404 0.86803621 -0.21031018 0.12219143 -0.077391177 0.33566597 0.081820689 0.31436479 -0.42947391 0.26824585 0.21673344 -0.24411654 -0.093124099 -0.48269373 0.0065617571 -0.26917338 -0.45239794 0.058522202 -0.19898717
23 -0.03249063 -0.34584945 0.18464567 -0.25656095 0.22695449 0.13387552 -0.20612162 -0.049375143 0.15499432 0.064129673 -0.022699019 0.11056487 0.012760412 -0.34575757 -0.33809376 -0.027227513 -0.070083819 0.11331937 0.20655787 0.0277851 0.30733982 0.10308316 -0.065943331 -0.022801315 -0.12811914 -0.10986976 0.28737459 0.32315001 0.070595197 -0.24718326 -0.068628922 -0.13411424 -0.11665026 -0.069787972 -0.011358857 -0.33029893 -0.026192078 0.0033939141 -0.31767261 0.34013975 -0.042148456 -0.29394838 -0.19093986 0.083017267 0.048675556 0.12557743 -0.086116731 -0.14472821 0.053876985 -0.10033641 -0.30101782 0.068415277 -0.0069684228 0.063852124 -0.098850705 0.011307228 -0.054057758 0.29584077 0.094895028 -0.18574153 -0.0030440949 0.22457854 0.015253129 0.064172812
10 -0.010490088 -0.26239598 0.18795317 -0.34533978 0.19307046 0.21944366 -0.29596069 0.015824387 0.10984873 0.057996348 0.020278316 0.10123639 0.032381017 -0.32069877 -0.34728464 -0.10681698 0.071675926 0.14646763 0.083719276 0.12622248 0.34892526 0.066190645 0.011181792 0.039409004 -0.077005088 -0.011676416 0.18226506 0.27250889 0.043574713 -0.063728422 -0.12149624 -0.064112455 -0.089061722 -0.039791666 -0.027533062 -0.1559817 -0.060706671 -0.044939619 -0.36467975 0.31709629 0.019184023 -0.2774021 -0.097446553 0.18145427 -0.0031691871 -0.046642572 -0.0067314385 -0.10859521 0.099110126 -0.208762 -0.17309976 0.056454964 -0.053320587 0.099818856 -0.12198388 0.15090653 -0.023559382 0.26569054 -0.035929933 -0.12020184 0.031200701 0.22422543 0.076274723 -0.066543341
15 -0.022041732 -0.37664539 0.14209323 -0.21282864 0.27730063 0.12186591 -0.16853304 -0.053342707 0.13749965 0.057061914 -0.018937467 0.14002915 -0.002422848 -0.31548434 -0.33563456 -0.00063644431 -0.098542139 0.097001962 0.21430083 0.0047205449 0.22517335 0.15370263 -0.01576609 -0.066478811 -0.15147938 -0.099986501 0.28536394 0.32592613 0.13467485 -0.27761751 -0.047687571 -0.15870038 -0.12619728 -0.071496591 0.03515432 -0.37275937 -0.044984251 0.013077609 -0.32207254 0.33466941 -0.031105747 -0.31721494 -0.23214507 0.03988383 0.0070713204 0.16897768 -0.054976728 -0.15718484 0.074942932 -0.042215586 -0.26802805 0.067702994 0.058325484 -3.9031191e-05 -0.076481782 -0.031616841 -0.086828277 0.20841588 0.10693621 -0.17570508 -0.054903414 0.17257676 -0.038766824 0.063094273
19 -0.028280441 -0.36074668 0.17596616 -0.24724831 0.26052046 0.14256483 -0.2031514 -0.048602931 0.13650064 0.059968412 -0.022764863 0.12756109 0.0011040239 -0.3567977 -0.36134309 -0.035453118 -0.057694755 0.12656006 0.19840705 0.02827557 0.30139855 0.1303077 -0.02750377 -0.034144811 -0.13750052 -0.098043539 0.28131437 0.33648095 0.10617309 -0.24500473 -0.07824564 -0.1434301 -0.12222553 -0.051182434 0.015076216 -0.33755159 -0.030470679 0.0077408743 -0.34381866 0.34967846 -0.027830387 -0.31810784 -0.19784905 0.09290038 0.022403145 0.11768223 -0.072041057 -0.15049814 0.080429122 -0.092875183 -0.27280873 0.063484959 0.032164909 0.04950697 -0.08873044 0.0038098004 -0.074235864 0.26410615 0.099739909 -0.19367602 -0.020657545 0.22472271 0.0015481776 0.050872341
16 -7.0967639e-05 -0.41748872 0.2060633 -0.22542495 0.26889354 0.09618295 -0.20853435 -0.081908338 0.13877697 0.090912178 -0.01968547 0.20285258 0.055979628 -0.35211825 -0.35102129 -0.024049116 -0.097292513 0.12098916 0.2158705 0.034866095 0.31729618 0.13000983 -0.033350587 -0.06523855 -0.16632049 -0.090631783 0.27115637 0.39933369 0.13709439 -0.31365716 -0.080149673 -0.21265849 -0.12395586 -0.0320534 0.032723084 -0.4268055 -0.0087265326 0.031936668 -0.40621749 0.37503752 -0.07659433 -0.36665845 -0.20493735 0.10346928 0.016100891 0.19307567 -0.18146369 -0.14772518 0.094870366 -0.029399794 -0.31714672 0.072886273 0.067397512 0.035886236 -0.096840814 -0.041301843 -0.070491828 0.22705942 0.18435983 -0.20545144 -0.074361749 0.24326895 -0.067725472 0.088955186
21 -0.0051682172 -0.3589288 0.16330901 -0.28611934 0.26144975 0.12830274 -0.2206334 -0.035338446 0.12512593 0.056274615 0.013783767 0.19109239 0.045413524 -0.31886512 -0.33791676 -0.025956273 -0.041392799 0.13295396 0.15058 0.076841086 0.2883589 0.12729804 0.038420346 -0.056166451 -0.15187639 -0.061918642 0.24562003 0.33643371 0.13609619 -0.22705708 -0.076682858 -0.16531874 -0.10873436 -0.018807169 0.038020149 -0.33819631 -0.047027402 0.008826579 -0.37692243 0.36606932 -0.02950817 -0.32290223 -0.1870251 0.096514098 -0.0053041005 0.11556271 -0.10463895 -0.12395718 0.092142843 -0.077807434 -0.2107393 0.052093096 0.056229696 0.032610562 -0.094089955 0.021326667 -0.068497106 0.20429912 0.095359348 -0.16523325 -0.089378513 0.21182017 -0.026276246 0.042404145
27 -0.013427318 -0.3993721 0.21259956 -0.26923576 0.24817765 0.13605072 -0.2274949 -0.068681516 0.13046685 0.080600061 -0.010327816 0.17509544 0.038336396 -0.36387521 -0.34284177 -0.074444316 -0.053998984 0.14348327 0.18278731 0.072421864 0.34728038 0.12257284 -0.032703217 -0.01289793 -0.15651777 -0.075497404 0.24261433 0.3818469 0.098509364 -0.2346295 -0.089489467 -0.16672543 -0.13219079 -0.029501177 0.0075744833 -0.34672827 -0.01130989 -0.0017560214 -0.41276276 0.37290141 -0.0656773 -0.36219117 -0.18308347 0.13520272 0.013475771 0.11462864 -0.15888122 -0.13985765 0.077884346 -0.07785926 -0.30200258 0.066552505 0.016299861 0.058965214 -0.10298296 0.0080931084 -0.054783218 0.25705072 0.14115965 -0.19022784 -0.034532834 0.2584841 -0.030252043 0.049503203
12 -0.076911934 -0.13449793 -0.020306669 -0.39307028 0.24392827 0.31818908 -0.1916744 0.17115663 0.047345199 -0.12023784 0.11069015 -0.030948134 -0.18791944 -0.14271615 -0.35180545 -0.041490417 0.19111326 0.077082582 -0.0068328744 0.025268879 -0.06712506 0.18142682 0.16177084 -0.035407536 0.003844938 0.065027297 0.21467048 0.025371702 0.15251073 0.065857552 -0.0091904514 0.068025783 -0.11875876 -0.091561891 0.046738077 0.060385536 -0.32030189 -0.076306 -0.068822056 0.20063592 0.23346035 -0.10959747 -0.11321861 -0.05687983 -0.15677744 -0.16134064 0.50105536 -0.11651097 0.087822199 -0.27859178 0.16102885 0.03077451 -0.0080300504 -0.07649859 0.040773742 0.30509803 -0.080845393 0.1311595 -0.37469083 -0.02787986 0.018831372 -0.11670935 0.15400101 -0.25311136
